/*
 * Copyright (c) 2018, Alliance for Open Media. All rights reserved
 *
 * This source code is subject to the terms of the BSD 2 Clause License and
 * the Alliance for Open Media Patent License 1.0. If the BSD 2 Clause License
 * was not distributed with this source code in the LICENSE file, you can
 * obtain it at www.aomedia.org/license/software. If the Alliance for Open
 * Media Patent License 1.0 was not distributed with this source code in the
 * PATENTS file, you can obtain it at www.aomedia.org/license/patent.
 */

#ifndef AOM_AV1_ENCODER_PARTITION_MODEL_WEIGHTS_H_
#define AOM_AV1_ENCODER_PARTITION_MODEL_WEIGHTS_H_

#ifdef __cplusplus
extern "C" {
#endif

#include "ml.h"

// nn model for predicting max square partition level of a superblock
#define NUM_HIDDEN_LAYERS 1
#define NUM_FEATURES 13
#define NUM_LAYER_0_UNITS 48
#define NUM_LOGITS 4

static const float av1_max_part_pred_logits_kernel[] = {
  -0.304561f,   0.0885596f,   -0.988539f,   1.08147f,    0.215213f,
  0.202965f,    -0.828457f,   -0.233945f,   -0.0866977f, -0.115521f,
  0.02079f,     0.196491f,    -0.0285075f,  0.05067f,    -0.00872862f,
  0.00281844f,  -0.238954f,   0.0253801f,   0.0257775f,  0.339269f,
  0.176174f,    -0.152545f,   -0.0588704f,  -1.62275f,   -0.189329f,
  0.0808033f,   0.233844f,    -4.53798f,    0.674968f,   -0.0361688f,
  -0.0754075f,  1.16129f,     -0.0188879f,  0.113255f,   -3.04378f,
  0.814728f,    -0.568517f,   -0.00179383f, -3.61223f,   -1.67535f,
  -2.20417f,    -0.197196f,   0.0507745f,   -0.0909394f, -0.0507879f,
  -1.27999f,    -0.055623f,   0.0318497f,   0.192867f,   0.138726f,
  0.0443392f,   -0.595075f,   -0.166774f,   0.0882958f,  -0.348161f,
  0.0214428f,   -0.0599275f,  -0.0995385f,  -0.82358f,   0.141205f,
  -0.053232f,   0.00508296f,  -1.90872f,    1.15004f,    -0.194219f,
  0.0229019f,   -0.00354318f, 0.22016f,     0.154101f,   -0.159231f,
  -0.0446647f,  -0.197503f,   0.0408453f,   0.197659f,   0.797858f,
  -0.189722f,   0.343653f,    0.124666f,    -1.03083f,   0.603059f,
  0.101565f,    0.0932993f,   0.462484f,    0.295984f,   1.11198f,
  0.143709f,    -0.846232f,   -0.464392f,   -1.06058f,   -0.124889f,
  0.0727475f,   1.18446f,     -0.100302f,   0.0641918f,  -0.101622f,
  0.10219f,     0.130189f,    0.0915623f,   -0.166904f,  -1.10606f,
  -0.16726f,    -0.146152f,   0.145443f,    -0.177091f,  -0.0215214f,
  0.0158506f,   -0.553294f,   0.0784749f,   -0.0416628f, -0.027785f,
  0.280027f,    0.484898f,    -0.164225f,   0.0238317f,  -0.0345254f,
  0.0410244f,   0.131529f,    0.0239622f,   -0.0749436f, -0.0224914f,
  0.128926f,    0.224539f,    0.413297f,    0.0638572f,  0.103308f,
  0.0913242f,   -0.119274f,   0.0163103f,   0.113828f,   0.119809f,
  0.297057f,    -0.124889f,   -0.533108f,   -0.181408f,  -0.129896f,
  0.0221064f,   -0.0773281f,  -0.0386467f,  0.0342961f,  0.126575f,
  -0.24114f,    0.0735576f,   0.0524791f,   0.246896f,   -0.130674f,
  -0.03979f,    0.173639f,    1.95193f,     -0.113029f,  -0.0305852f,
  -0.00671737f, 0.157159f,    -0.00102858f, -0.543688f,  0.566772f,
  0.124124f,    -0.0294064f,  -0.0699021f,  -0.0704103f, -0.766097f,
  -0.0625802f,  -0.0906173f,  -0.0520414f,  -0.0272724f, 0.283064f,
  0.236213f,    -0.127319f,   0.019392f,    0.170042f,   -0.0214542f,
  0.0740938f,   0.356578f,    -0.236257f,   0.269021f,   0.114759f,
  -0.641166f,   0.136308f,    -0.0386959f,  -0.112024f,  -0.361209f,
  0.686095f,    0.183906f,    0.288656f,    0.182007f,   0.337458f,
  0.058974f,    -0.305512f,   -0.841708f,   -0.243779f,  -0.0614058f,
  0.208747f,    0.448697f
};

static const float av1_max_part_pred_layer_0_bias[] = {
  -0.776544f, -2.0022f,    -0.330294f, 2.47665f,  1.90206f,   -1.61571f,
  0.536246f,  1.00455f,    5.24561f,   1.55111f,  -0.816399f, -4.88703f,
  -1.06417f,  -1.15359f,   -0.145289f, 1.91831f,  0.630915f,  -1.94256f,
  -3.35239f,  -1.05007f,   -1.05186f,  1.36824f,  -5.2878f,   1.10482f,
  -5.00077f,  -0.0445198f, 3.41427f,   2.3439f,   -0.413306f, -1.88152f,
  -2.28638f,  8.24783f,    -1.91961f,  -1.49324f, 1.96599f,   -6.32309f,
  -0.332426f, -0.425506f,  4.06511f,   5.84386f,  4.15747f,   1.22402f,
  2.8512f,    2.53027f,    0.0170272f, -1.43966f, -0.997785f, 5.43064f
};

static const float av1_max_part_pred_logits_bias[] = { -4.25432f, 0.144758f,
                                                       1.96217f, 0.728905f };

static const float av1_max_part_pred_layer_0_kernel[] = {
  0.992471f,    0.533006f,    0.143743f,     -2.51788f,    -0.468337f,
  -0.201376f,   -0.151834f,   0.479883f,     1.16061f,     -0.278878f,
  -0.814954f,   -0.152405f,   -0.0521608f,   0.797104f,    -2.08912f,
  0.385839f,    -2.22889f,    -0.106858f,    -0.239766f,   -0.951128f,
  -0.698753f,   0.0831051f,   1.1702f,       0.342834f,    -0.0352795f,
  -0.0847639f,  -0.802086f,   0.258982f,     1.14174f,     0.645885f,
  -1.19226f,    -0.592888f,   -0.343659f,    1.1912f,      1.45411f,
  -1.22927f,    0.152858f,    0.00373585f,   -1.60637f,    0.592611f,
  0.0857475f,   -0.346147f,   -0.150784f,    -0.0817408f,  -0.189918f,
  -0.804952f,   -1.33036f,    -1.03307f,     0.0248769f,   0.16607f,
  -2.896f,      -2.1293f,     0.12293f,      -0.173179f,   -0.212128f,
  -6.76221f,    0.033188f,    0.0231787f,    0.905957f,    0.0551327f,
  -0.356276f,   0.0181795f,   0.0977523f,    -0.0352873f,  -0.0396386f,
  2.3241f,      0.0632874f,   -0.11804f,     -6.32521f,    0.0224659f,
  -0.00188896f, 0.267992f,    0.272337f,     0.00936963f,  0.659969f,
  -2.25707f,    -0.0278229f,  -0.0185089f,   -1.14466f,    0.104827f,
  0.0435885f,   0.558586f,    -0.00697004f,  0.0312611f,   0.540574f,
  -0.568625f,   0.218608f,    0.378911f,     -0.0289192f,  -0.0734742f,
  -1.08782f,    -2.42069f,    -0.0127239f,   0.0493651f,   -1.15837f,
  0.261831f,    0.401824f,    -1.04545f,     0.284173f,    0.784972f,
  -0.511243f,   -0.982599f,   -0.106134f,    -0.325964f,   -1.44107f,
  -1.42434f,    -1.02402f,    -1.52034f,     0.0737116f,   0.0462242f,
  0.628722f,    -1.0405f,     -0.113718f,    2.20573f,     -4.33951f,
  -0.0192695f,  -0.0229314f,  -1.89156f,     0.645942f,    0.375708f,
  -1.97447f,    -0.267014f,   0.0989443f,    -0.450534f,   -1.01737f,
  -0.642416f,   -0.0897288f,  -2.08724f,     -0.190965f,   -0.279135f,
  -0.830178f,   0.808754f,    -0.139091f,    1.11004f,     -0.454439f,
  -0.479238f,   -1.44001f,    0.0888059f,    0.885689f,    -0.642505f,
  -0.00773651f, -0.0265721f,  -0.906346f,    1.68504f,     0.084257f,
  -0.951101f,   -8.06495f,    0.19231f,      0.16389f,     -0.193678f,
  0.729837f,    -1.98392f,    -5.98513f,     3.32638f,     -0.0658378f,
  -0.0910426f,  -0.666567f,   -0.315339f,    0.123124f,    -2.66375f,
  -0.714852f,   -0.136176f,   -0.460166f,    -0.567551f,   -1.06193f,
  -1.21389f,    -0.83865f,    0.00280695f,   -0.199519f,   -0.534704f,
  0.419311f,    -0.149008f,   -3.68707f,     0.00285113f,  -0.0718198f,
  -1.41026f,    -1.34155f,    -0.538687f,    -0.623666f,   -2.56462f,
  -0.0183333f,  -0.323532f,   -1.27141f,     -0.0212039f,  0.198633f,
  0.459554f,    -4.65103f,    -1.01293f,     -1.39512f,    -0.289026f,
  0.208724f,    -0.665226f,   1.13369f,      -1.96734f,    -1.45442f,
  -3.46172f,    0.810681f,    -0.603973f,    0.842764f,    -3.90371f,
  -0.394561f,   -3.61363f,    -2.88085f,     0.031645f,    -0.23125f,
  -2.63898f,    -1.35314f,    -0.46726f,     1.33145f,     1.20269f,
  1.38682f,     -0.331637f,   0.069021f,     0.149523f,    -1.24957f,
  -0.878857f,   -0.200368f,   0.465744f,     1.01365f,     -0.0122221f,
  -0.550586f,   -1.12581f,    -0.422132f,    -0.0744868f,  -2.4804f,
  -1.07072f,    -0.479006f,   0.101817f,     -0.118947f,   0.341576f,
  -1.0538f,     -0.812346f,   -1.13727f,     -0.00939806f, 10.1571f,
  -0.0441302f,  0.00280407f,  -21.5044f,     0.0181152f,   -0.0143246f,
  3.23462f,     -1.38624f,    -1.80416f,     4.89763f,     -2.67364f,
  2.31771e-05f, 0.000393989f, 0.352204f,     -0.193455f,   0.531455f,
  0.488757f,    -0.442555f,   -0.518528f,    0.431482f,    -2.67727f,
  -2.00626f,    -0.39729f,    -0.221494f,    -0.0188888f,  -0.0377649f,
  -1.80169f,    0.0810332f,   -0.0408335f,   -1.28675f,    -0.0353824f,
  -0.666723f,   -1.07281f,    0.252912f,     -1.24547f,    -1.7831f,
  -1.14354f,    -0.137662f,   0.00230182f,   0.736862f,    0.175872f,
  -0.187556f,   0.43963f,     -0.796524f,    0.056219f,    -0.387874f,
  0.0710224f,   -0.16548f,    -0.100993f,    0.931481f,    -3.20738f,
  -0.0197576f,  0.266148f,    -0.173909f,    -0.337795f,   -0.0682381f,
  0.176844f,    0.140286f,    1.12033f,      0.429064f,    -2.24192f,
  -1.54682f,    2.23646f,     -0.0371138f,   -0.0475339f,  -3.21766f,
  0.0412858f,   0.387811f,    6.6711f,       0.140649f,    0.0559547f,
  -0.802839f,   0.599977f,    0.64552f,      -2.08103f,    -0.503401f,
  -0.0407036f,  -0.0299199f,  0.0849445f,    -0.111657f,   -1.63462f,
  3.33762f,     0.0441394f,   0.0466889f,    -0.951806f,   0.0723954f,
  0.00348661f,  -1.36903f,    2.24625f,      -0.0348915f,  -0.0508893f,
  -0.240891f,   -0.120143f,   -0.17991f,     -2.09137f,    0.0150871f,
  0.0480333f,   1.72012f,     0.0309551f,    -0.0370507f,  -0.377075f,
  0.103916f,    -0.0169255f,  -0.0145395f,   -4.02144f,    0.83193f,
  -0.316502f,   6.3832f,      -1.70038f,     -1.97215f,    -1.94501f,
  1.45479f,     0.711725f,    -0.348496f,    -0.279056f,   -1.13396f,
  -1.51744f,    -0.853307f,   1.53131f,      -0.0032358f,  1.41808f,
  -1.32989f,    -0.245221f,   -0.161614f,    -0.500845f,   -0.449252f,
  0.0724151f,   -0.116333f,   -0.0946182f,   -2.0945f,     0.0564572f,
  0.393261f,    -1.06861f,    -0.111458f,    -0.839943f,   -0.0880348f,
  0.0365742f,   0.415339f,    -1.57494f,     -0.713697f,   1.02349f,
  -0.221371f,   -0.0446281f,  1.89223f,      -0.0811754f,  -0.402773f,
  -0.930987f,   0.0243194f,   0.0678332f,    -0.0233014f,  0.165372f,
  -0.44083f,    -1.2404f,     0.35675f,      -0.040916f,   -0.0512548f,
  -2.9071f,     0.861174f,    -0.778133f,    2.14436f,     -0.688427f,
  -0.480371f,   -1.69032f,    0.706687f,     -0.281982f,   -2.30451f,
  1.61541f,     -0.0213638f,  -0.740509f,    -0.266677f,   0.0268434f,
  -0.0116908f,  -3.17595f,    0.0114825f,    0.0196997f,   -0.144005f,
  0.0550181f,   -0.851459f,   -0.000285073f, -0.538441f,   -0.0254868f,
  -0.0104454f,  -0.0661998f,  -0.196469f,    -0.346372f,   -5.52892f,
  -0.643683f,   -0.622224f,   -0.31463f,     -0.555956f,   -0.520132f,
  -0.843166f,   -2.59479f,    -0.750195f,    0.00635995f,  -0.338615f,
  -0.216676f,   -0.391544f,   -1.62185f,     -0.718471f,   -0.475406f,
  -0.782041f,   -0.608824f,   -1.09633f,     -1.27308f,    -0.560719f,
  -0.207539f,   -0.0196445f,  -1.05519f,     -0.575249f,   -1.0642f,
  1.01615f,     -0.873633f,   -0.417953f,    -0.428051f,   0.350259f,
  -2.53833f,    -2.72203f,    0.672846f,     -0.503094f,   -1.1374f,
  0.214291f,    0.013305f,    0.0112064f,    1.10532f,     0.030455f,
  0.0239614f,   0.628072f,    0.0539135f,    -0.472441f,   -0.688439f,
  -0.32044f,    -0.0234867f,  -0.0158436f,   -0.949314f,   -0.0453161f,
  -1.18306f,    0.626845f,    -0.426925f,    -0.688371f,   0.415062f,
  0.0640985f,   -0.638387f,   -2.01399f,     -0.209744f,   -0.762892f,
  -0.0753296f,  -0.879315f,   -0.520433f,    -0.111375f,   0.389742f,
  -0.398862f,   -0.643227f,   -0.246396f,    0.0317051f,   1.06973f,
  0.413617f,    0.180506f,    -0.0507897f,   -0.00650435f, 0.620892f,
  0.046312f,    0.475032f,    0.906993f,     -0.0388061f,  -0.256271f,
  -1.03323f,    0.0125266f,   -0.31116f,     -0.377611f,   -0.0386407f,
  -0.0232745f,  -0.353644f,   -2.27289f,     0.0571779f,   -0.00865006f,
  1.65101f,     0.0175711f,   0.0184585f,    0.558458f,    0.2213f,
  -0.285089f,   0.433445f,    -0.427177f,    -0.0103682f,  -0.0101273f,
  0.214085f,    -0.0459885f,  0.00761981f,   0.836381f,    0.0175293f,
  0.02508f,     -1.51778f,    0.0143956f,    -0.162589f,   0.595418f,
  0.21445f,     -0.0335848f,  -0.0136684f,   -0.16686f,    -0.14612f,
  0.0816238f,   0.499636f,    0.12458f,      -2.41673f,    -0.261721f,
  -0.676805f,   -1.88366f,    0.730462f,     0.69196f,     -0.0288489f,
  -2.38272f,    0.329876f,    0.014517f,     -0.115145f,   -3.48151f,
  -0.00209072f, -0.0732377f,  0.820443f,     -0.0118701f,  0.112145f,
  0.272315f,    0.137531f,    -0.0200997f,   -0.0397883f,  -2.19458f,
  0.183554f,    -0.639716f,   0.481605f,     -0.621639f,   -0.0980299f,
  -0.710534f,   -0.143105f,   -6.77626f,     -1.65139f,    -2.37718f,
  -0.533127f,   -1.12574f,    3.34182f,      -0.0758663f,  0.0334238f,
  -9.48647f,    0.0674974f,   0.0507665f,    0.523007f,    -0.0668f,
  0.5736f,      -0.589761f,   -1.1692f,      -0.0236497f,  -0.00828928f,
  -0.265823f,   1.15284f,     0.307927f,     -0.695308f,   0.13725f,
  -0.20394f,    -0.363965f,   -0.331159f,    -1.50927f,    -1.20051f,
  -0.0205825f,  -0.0381859f,  -0.0579876f,   -1.6913f,     -1.94626f,
  3.4214f,      3.3922f,      -2.13798f,     -0.679848f,   -0.890735f,
  0.235017f,    -0.253202f,   -1.0571f,      1.40354f,     0.00719052f,
  -1.54365f,    -0.7289f,     -1.05492f,     0.0238169f,   -0.00543592f,
  -0.0510353f,  -0.175386f,   -0.724207f,    -0.788936f,   0.039976f,
  1.36966f,     0.869475f,    -0.0302774f,   -0.0537556f
};

static const NN_CONFIG av1_max_part_pred_nn_config = {
  NUM_FEATURES,
  NUM_LOGITS,
  NUM_HIDDEN_LAYERS,
  {
      NUM_LAYER_0_UNITS,
  },
  {
      av1_max_part_pred_layer_0_kernel,
      av1_max_part_pred_logits_kernel,
  },
  {
      av1_max_part_pred_layer_0_bias,
      av1_max_part_pred_logits_bias,
  },
};

static const float automax_partition_weights_layer0[624] = {
-1.26468f,-2.123636f,0.10238354f,0.07626295f,-0.09865538f,-0.35168535f,-1.4862314f,-1.5867765f,0.18245552f,2.5912051f,1.6279297f,-0.06257569f,-0.10570242f,2.2731688f,2.926254f,3.4124448f,-0.5803224f,0.19255461f,0.2640349f,-2.8946064f,-2.1079054f,-0.24875095f,1.6019965f,2.3979168f,-0.030562578f,-1.3221735f,-1.6589277f,0.3193038f,-0.12741363f,2.561222f,-0.7163106f,-0.791986f,-0.6162677f,0.54232347f,0.31992757f,-0.23325695f,-0.4527113f,-0.6337903f,-0.5072085f,-2.164456f,-1.6150706f,-1.1342287f,-1.4916667f,0.107353814f,0.042105023f,-0.18873121f,-1.2885029f,-0.2092066f,2.7798142f,-4.18391f,-0.018369855f,-0.02737681f,-0.50743586f,0.09722271f,0.20269874f,-0.2557381f,-0.21524982f,-0.0016166621f,-0.24272946f,-0.12523624f,-0.20594232f,0.070709586f,-0.20667882f,-0.07179094f,-0.05130994f,0.62877166f,0.09552856f,-0.15696648f,0.6234084f,-0.9433564f,0.06597304f,-0.59671587f,-0.024650643f,-0.112314366f,0.15904528f,0.95816624f,-3.8365147f,-0.023630904f,1.1644357f,0.1165771f,-1.1507945f,-11.23355f,0.1565218f,0.2585608f,-2.0627263f,0.9627734f,-2.3031764f,-4.346318f,5.7875867f,-0.08844112f,-0.120217755f,-0.47699642f,-0.071775675f,0.024932502f,-0.0071740947f,-0.12759048f,-0.27006125f,-0.7523451f,-0.13267083f,-0.022887923f,-0.37873375f,-0.30511773f,-0.056843806f,-0.004313809f,1.4176292f,0.06741751f,0.054995928f,3.5142338f,0.10250855f,0.09239089f,1.7880085f,0.12019808f,-1.663408f,-2.4667096f,-1.0252151f,-0.0817658f,-0.055510942f,3.84405f,-0.12667209f,-0.64273804f,-1.3459662f,0.010421767f,0.16336921f,-0.552459f,0.296724f,-0.4911362f,-2.104271f,0.3818195f,-0.0514492f,-0.09196864f,-3.5064602f,1.034138f,-0.24666202f,6.0256653f,-1.4825174f,-1.0124873f,-3.4598277f,-3.6765583f,-0.31197467f,0.7457276f,2.0815854f,-0.7012287f,-1.0996363f,-0.5193803f,-0.13783158f,0.14697884f,-0.11358778f,-0.42774016f,-0.5329699f,-0.18452285f,0.06660753f,-0.18623365f,-0.30698833f,-0.3809907f,-0.0076260837f,-0.0040764106f,-1.0046738f,-1.413876f,1.1729338f,1.6224658f,-1.3488734f,-0.004013566f,-0.63744575f,-0.04725442f,-0.0012234271f,-0.18295574f,1.2246054f,-0.1410628f,-0.8014218f,0.10762582f,0.74259925f,0.14640768f,-3.395822f,-0.5506393f,-0.25776365f,1.5746758f,0.4930755f,1.654407f,-0.7971016f,-4.353559f,-0.24272968f,-0.067868344f,-9.97451f,0.26056305f,-0.031679798f,7.6997323f,0.08399068f,0.08958025f,2.5611005f,1.0372678f,-1.4283066f,1.6962034f,-2.1701422f,-0.04789197f,-0.046702586f,-0.5922213f,-0.059281327f,0.019444091f,-1.3365536f,-0.35243338f,-0.4334927f,-0.6836776f,-0.11117636f,-0.016969774f,-0.49721882f,-0.76455975f,-0.007915246f,-0.526801f,-1.6675844f,2.9889665f,-0.04237985f,2.7541893f,-2.6427114f,-0.5327302f,-0.31052762f,-0.99754554f,-0.8005322f,0.119943775f,-0.22133566f,-0.115800336f,-4.106056f,0.060466886f,-0.14179908f,-0.043588523f,-0.3206974f,-0.26371753f,-0.20546012f,-0.24610728f,-0.04493745f,-0.050459843f,-0.07286212f,-0.16998103f,-0.036942616f,-0.23176773f,-5.9427576f,0.076032564f,0.7694767f,12.458997f,0.26197156f,0.11601234f,-1.9577186f,1.0597198f,1.1629912f,-3.7078738f,-0.7944929f,-0.07208056f,-0.055028316f,-0.43422782f,-0.17784618f,-2.97255f,6.399642f,0.08220573f,0.07260483f,-1.7819477f,0.15790194f,-0.1479481f,-2.3758245f,4.2919736f,-0.0639081f,-0.09322181f,1.9340144f,0.6574846f,-1.3650992f,-0.45583275f,-0.2904653f,-0.8217239f,-2.7150538f,-2.216002f,-2.4457004f,0.124679126f,1.0380216f,-10.486355f,-8.297232f,7.2726154f,-0.15230842f,0.07844389f,-21.820705f,0.15542747f,0.100302435f,1.5883998f,-0.10446612f,1.2774693f,-1.1185355f,-2.7953043f,-0.056158334f,-0.019033484f,-1.1255144f,-0.23322694f,-0.33646554f,-4.871726f,-0.0022703905f,0.07435105f,4.504213f,0.05763517f,0.020921823f,-1.0018189f,-0.73031956f,-0.032743093f,-0.028208889f,-0.5372287f,0.23173009f,0.94172114f,0.040619228f,-1.6290252f,-0.40016612f,-1.0845488f,1.190624f,0.3742103f,-1.6004944f,-0.1171727f,-0.12632972f,-2.6788921f,-0.5003214f,-0.07769587f,0.030262798f,-0.36346892f,-0.11710592f,-0.25086096f,-0.39948583f,-0.050442018f,-0.008818934f,0.015530084f,-0.17623945f,-0.0023011793f,-0.19650629f,1.7231131f,-0.16482346f,-0.2550072f,-13.223691f,0.11080241f,0.046756603f,0.7088978f,0.18761458f,-1.4068477f,1.45437f,-2.3740306f,-0.06518851f,-0.063738346f,-3.5558712f,0.7765846f,2.209199f,-5.100702f,-2.3109534f,1.3530835f,-5.879211f,-0.44370565f,2.9163334f,-5.750073f,-1.7903888f,-0.018930169f,-6.072948f,-0.224566f,-0.1659428f,0.09922618f,-0.13741916f,-0.19409803f,-0.42538103f,0.012513916f,-0.082643636f,-0.11339616f,-0.43152395f,-0.05037388f,-0.007258951f,-0.0046870615f,-2.3056977f,0.21336707f,0.061938338f,1.239765f,-0.00372543f,0.014393062f,0.5387537f,-0.8877239f,0.39904577f,0.88295627f,0.44330066f,-0.1630523f,-1.9603055f,-0.31431112f,0.3720302f,0.48255664f,-1.2980717f,0.12614141f,0.17053817f,-1.478048f,-0.9152945f,0.7721547f,-1.7845684f,-0.88773316f,-0.31963632f,-1.2354934f,-6.1155343f,0.07206759f,0.7787511f,13.001727f,0.28739285f,0.11092895f,-1.5248593f,1.2192416f,1.3143778f,-4.2527714f,-0.8671966f,-0.08492625f,-0.061121363f,-2.663051f,0.8679646f,-0.12394693f,4.399252f,-1.2333032f,-0.8890789f,-2.220519f,0.2578224f,0.076150574f,0.43991756f,1.0555425f,-0.45301026f,-0.40569243f,2.7009459f,0.1641779f,-0.2710459f,-12.890839f,0.040080577f,-0.110414974f,0.48783502f,0.31396484f,0.07342798f,1.8350407f,-1.5710374f,-0.07880187f,-0.03488752f,-2.2233098f,-0.06267156f,0.43218917f,4.017848f,0.21997464f,0.025287813f,-5.338076f,-0.44120637f,-0.87507373f,-0.8328103f,-1.3391212f,-0.060662195f,-0.028303344f,-2.5275557f,1.1994896f,-0.9670827f,2.3817196f,-0.04732073f,0.028991196f,-4.0957975f,0.4112634f,0.044620287f,-2.7032902f,-0.3772839f,-1.3660865f,-2.8392613f,-3.630191f,-0.25077927f,0.6805457f,4.309185f,0.3164371f,-0.41810837f,-5.4113626f,-1.395809f,-1.0356716f,-0.14001723f,-1.8939663f,-0.07585108f,-0.025667625f,0.01043595f,-0.1628087f,-0.2677846f,0.16363552f,0.16611518f,0.12817952f,1.0298542f,0.33555916f,-2.0462842f,-1.2780591f,1.8620881f,-0.030135905f,-0.03972375f,0.22487263f,0.5876953f,0.56798923f,0.3634806f,0.20730197f,-0.3010387f,-6.6788635f,0.008992141f,-1.9949487f,0.64503795f,1.2572972f,-2.1876216f,-0.8650142f,0.98326224f,-1.8450382f,0.34390506f,-2.2340384f,-0.09328777f,-0.2078392f,-0.5686786f,-0.68135107f,0.20569947f,0.5084677f,-0.066627845f,-0.02964508f,-0.075142585f,1.3732377f,-0.389815f,0.9618528f,0.8989141f,-0.9504241f,-0.64550716f,0.14777412f,-5.6937776f,-2.4359753f,-1.5243255f,0.6318784f,-0.02409309f,-0.31628966f,-0.37470558f,0.006406264f,-0.07164551f,-0.46604723f,-0.25223598f,-0.22475964f,0.05185679f,-0.119299166f,0.1525365f,0.018251736f,0.045835614f,0.0014449368f,-0.3549377f,0.4837563f,-0.15604587f,-0.0038325582f,3.7285032f,0.08503081f,0.12596683f,-6.4602904f,0.115608096f,-0.78570664f,2.8584185f,0.7958023f,-0.15188536f,-0.06250832f,-3.9944978f,0.008230073f,0.10962389f,-1.1403008f,0.51991063f,0.4371306f,0.39777824f,0.37389365f,1.6220578f,-2.7082937f,-4.96247f,-0.2719884f,-0.47050333f,-1.7897772f,2.7030838f,0.7211491f,-1.1336927f,0.33260983f,-0.5235292f,0.33324623f,-0.7664122f,-3.3942516f,-3.501204f,-1.1729165f,-0.09058271f,-0.13304345f,-0.36653176f,0.05605849f,-0.20075041f,-0.6775769f,-0.29151404f,-0.31708488f,-0.54800373f,-0.09179944f,0.21062978f,-0.22508189f,-0.32808462f,-0.048093688f,-0.0017558208f,0.9338562f,0.04933918f,0.81733656f,1.5985351f,-0.05098705f,-0.50463593f,-1.7454269f,-0.019959759f,-0.4604586f,-0.55185825f,-0.011414721f,-0.037378073f,-0.48159134f,27.464012f,-0.1306526f,0.023294095f,-62.304962f,0.06761784f,-0.0353305f,10.452222f,-3.9504507f,-5.423139f,15.06143f,-8.256683f,-0.0013550104f,0.0028328134f,-0.8896131f,0.3319681f,1.1242241f,0.95432264f,-0.7960498f,-0.32700938f,-0.28089258f,0.7827306f,2.219662f,-2.145894f,0.19308451f,-0.62525624f,-2.9549408f };
static const float automax_partition_weights_layer1[192] = {
0.016568867f,-0.098544985f,-0.08006024f,-0.06947823f,0.109435834f,-0.11970774f,0.18735074f,0.030504936f,0.22818024f,0.00936236f,-0.4515918f,-0.09634674f,-0.10183025f,-0.19571598f,-0.3511784f,0.053644583f,-2.2910857f,0.102231935f,-0.33378088f,-0.12215755f,0.23249127f,0.008502576f,0.017857833f,0.7884284f,0.018651959f,0.14913136f,-0.24388683f,0.12947665f,-0.47096524f,0.4970211f,-0.49183565f,0.99013996f,0.100300886f,1.2203581f,0.007264153f,1.5634677f,-0.039284453f,1.4682004f,0.09411307f,0.1322442f,-0.016306879f,-0.48354802f,-0.12878102f,-0.541124f,0.037505943f,-2.2302003f,0.008351267f,-0.61338913f,0.051875383f,-0.07963103f,1.458794f,-0.05023855f,0.059736602f,-0.13570507f,0.1155783f,-0.06373059f,0.07317326f,0.078116454f,0.04164862f,-0.11550587f,-0.10920421f,0.117679894f,-0.09941945f,-0.06316037f,-0.11213116f,0.104346916f,-0.062039893f,0.029635461f,-0.18608092f,-0.0297682f,0.08107631f,-0.23086563f,-0.019644963f,-0.052042905f,-0.0078063896f,0.17391627f,-0.17069194f,0.11086468f,-0.037407983f,0.23255262f,0.062445216f,0.02304365f,-0.4563309f,0.5023286f,-0.022871036f,-0.13966759f,0.15202716f,0.09628995f,0.046987228f,-0.2180431f,0.0064054155f,0.027284596f,-0.016587293f,-0.5397401f,-0.0011730173f,0.016559076f,0.12778988f,-0.06733816f,0.8563132f,-0.018394984f,0.11742009f,0.030691389f,0.03761654f,0.0061751907f,-0.03541837f,0.034210626f,0.018595103f,-0.06747619f,0.12998998f,0.0873254f,-0.0011451512f,-0.004618041f,0.007582108f,-0.052971918f,0.020835457f,0.07453914f,-0.27450517f,-0.11836382f,0.094536215f,-0.18422396f,0.053874128f,-0.097112045f,-0.03135749f,0.052966677f,0.098681085f,0.09220813f,-0.037537143f,0.08434249f,-0.041733216f,-0.06558777f,-0.22011475f,0.012456352f,-0.049759928f,-0.4642239f,0.09288365f,0.03206666f,0.069125816f,-0.010302739f,-0.12516081f,0.019476965f,-0.043280624f,-0.10977722f,-0.012036882f,-0.10006876f,0.2266975f,-0.026528317f,0.3149808f,8.29326e-05f,0.14687112f,0.18671279f,0.111018315f,-0.008499042f,-0.10709516f,0.13632631f,0.05676857f,0.03076884f,0.38393074f,-0.09481348f,0.041271966f,-0.00023314843f,0.19021627f,0.08236619f,-0.001994422f,0.097664714f,0.6928273f,-0.097749665f,-0.025680596f,0.0011504033f,-0.011103808f,-0.06219213f,0.110244974f,-0.040135335f,-0.011402338f,-0.43503937f,0.008397479f,-0.11132763f,-0.093207255f,-0.099889964f,0.20737723f,-0.11129162f,-0.13085683f,-1.5598072f,-0.04897917f,-0.00605931f,-0.07022497f,0.06449735f,0.10531099f,-0.01939111f,-0.036918916f,0.20638806f,-0.018513676f,0.12115269f };
static const float automax_partition_bias_layer0[4] = {
-4.2325845f,0.13911812f,1.943756f,0.6981646f };
static const float automax_partition_bias_layer1[4] = {
-4.2325845f,0.13911812f,1.943756f,0.6981646f };
static const NN_CONFIG automax_partition = {
	// 95.91% test accuracy
    13,  // num_inputs
    4,  // num_outputs
    1,  // num_hidden_layers
    {
        48,
    },  // num_hidden_nodes
    {
        automax_partition_weights_layer0,
        automax_partition_weights_layer1,
    },  // weights
    {
        automax_partition_bias_layer0,
        automax_partition_bias_layer1,
    }  // bias
};

#undef FEATURES
#undef HIDDEN_NODES

#ifdef __cplusplus
}  // extern "C"
#endif

#endif  // AOM_AV1_ENCODER_PARTITION_MODEL_WEIGHTS_H_
