/*
 * Copyright (c) 2018, Alliance for Open Media. All rights reserved
 *
 * This source code is subject to the terms of the BSD 2 Clause License and
 * the Alliance for Open Media Patent License 1.0. If the BSD 2 Clause License
 * was not distributed with this source code in the LICENSE file, you can
 * obtain it at www.aomedia.org/license/software. If the Alliance for Open
 * Media Patent License 1.0 was not distributed with this source code in the
 * PATENTS file, you can obtain it at www.aomedia.org/license/patent.
 */

#ifndef AOM_AV1_ENCODER_PARTITION_MODEL_WEIGHTS_H_
#define AOM_AV1_ENCODER_PARTITION_MODEL_WEIGHTS_H_

#ifdef __cplusplus
extern "C" {
#endif

#include "ml.h"

// nn model for predicting max square partition level of a superblock
#define NUM_HIDDEN_LAYERS 1
#define NUM_FEATURES 13
#define NUM_LAYER_0_UNITS 48
#define NUM_LOGITS 4

static const float av1_max_part_pred_logits_kernel[] = {
  -0.304561f,   0.0885596f,   -0.988539f,   1.08147f,    0.215213f,
  0.202965f,    -0.828457f,   -0.233945f,   -0.0866977f, -0.115521f,
  0.02079f,     0.196491f,    -0.0285075f,  0.05067f,    -0.00872862f,
  0.00281844f,  -0.238954f,   0.0253801f,   0.0257775f,  0.339269f,
  0.176174f,    -0.152545f,   -0.0588704f,  -1.62275f,   -0.189329f,
  0.0808033f,   0.233844f,    -4.53798f,    0.674968f,   -0.0361688f,
  -0.0754075f,  1.16129f,     -0.0188879f,  0.113255f,   -3.04378f,
  0.814728f,    -0.568517f,   -0.00179383f, -3.61223f,   -1.67535f,
  -2.20417f,    -0.197196f,   0.0507745f,   -0.0909394f, -0.0507879f,
  -1.27999f,    -0.055623f,   0.0318497f,   0.192867f,   0.138726f,
  0.0443392f,   -0.595075f,   -0.166774f,   0.0882958f,  -0.348161f,
  0.0214428f,   -0.0599275f,  -0.0995385f,  -0.82358f,   0.141205f,
  -0.053232f,   0.00508296f,  -1.90872f,    1.15004f,    -0.194219f,
  0.0229019f,   -0.00354318f, 0.22016f,     0.154101f,   -0.159231f,
  -0.0446647f,  -0.197503f,   0.0408453f,   0.197659f,   0.797858f,
  -0.189722f,   0.343653f,    0.124666f,    -1.03083f,   0.603059f,
  0.101565f,    0.0932993f,   0.462484f,    0.295984f,   1.11198f,
  0.143709f,    -0.846232f,   -0.464392f,   -1.06058f,   -0.124889f,
  0.0727475f,   1.18446f,     -0.100302f,   0.0641918f,  -0.101622f,
  0.10219f,     0.130189f,    0.0915623f,   -0.166904f,  -1.10606f,
  -0.16726f,    -0.146152f,   0.145443f,    -0.177091f,  -0.0215214f,
  0.0158506f,   -0.553294f,   0.0784749f,   -0.0416628f, -0.027785f,
  0.280027f,    0.484898f,    -0.164225f,   0.0238317f,  -0.0345254f,
  0.0410244f,   0.131529f,    0.0239622f,   -0.0749436f, -0.0224914f,
  0.128926f,    0.224539f,    0.413297f,    0.0638572f,  0.103308f,
  0.0913242f,   -0.119274f,   0.0163103f,   0.113828f,   0.119809f,
  0.297057f,    -0.124889f,   -0.533108f,   -0.181408f,  -0.129896f,
  0.0221064f,   -0.0773281f,  -0.0386467f,  0.0342961f,  0.126575f,
  -0.24114f,    0.0735576f,   0.0524791f,   0.246896f,   -0.130674f,
  -0.03979f,    0.173639f,    1.95193f,     -0.113029f,  -0.0305852f,
  -0.00671737f, 0.157159f,    -0.00102858f, -0.543688f,  0.566772f,
  0.124124f,    -0.0294064f,  -0.0699021f,  -0.0704103f, -0.766097f,
  -0.0625802f,  -0.0906173f,  -0.0520414f,  -0.0272724f, 0.283064f,
  0.236213f,    -0.127319f,   0.019392f,    0.170042f,   -0.0214542f,
  0.0740938f,   0.356578f,    -0.236257f,   0.269021f,   0.114759f,
  -0.641166f,   0.136308f,    -0.0386959f,  -0.112024f,  -0.361209f,
  0.686095f,    0.183906f,    0.288656f,    0.182007f,   0.337458f,
  0.058974f,    -0.305512f,   -0.841708f,   -0.243779f,  -0.0614058f,
  0.208747f,    0.448697f
};

static const float av1_max_part_pred_layer_0_bias[] = {
  -0.776544f, -2.0022f,    -0.330294f, 2.47665f,  1.90206f,   -1.61571f,
  0.536246f,  1.00455f,    5.24561f,   1.55111f,  -0.816399f, -4.88703f,
  -1.06417f,  -1.15359f,   -0.145289f, 1.91831f,  0.630915f,  -1.94256f,
  -3.35239f,  -1.05007f,   -1.05186f,  1.36824f,  -5.2878f,   1.10482f,
  -5.00077f,  -0.0445198f, 3.41427f,   2.3439f,   -0.413306f, -1.88152f,
  -2.28638f,  8.24783f,    -1.91961f,  -1.49324f, 1.96599f,   -6.32309f,
  -0.332426f, -0.425506f,  4.06511f,   5.84386f,  4.15747f,   1.22402f,
  2.8512f,    2.53027f,    0.0170272f, -1.43966f, -0.997785f, 5.43064f
};

static const float av1_max_part_pred_logits_bias[] = { -4.25432f, 0.144758f,
                                                       1.96217f, 0.728905f };

static const float av1_max_part_pred_layer_0_kernel[] = {
  0.992471f,    0.533006f,    0.143743f,     -2.51788f,    -0.468337f,
  -0.201376f,   -0.151834f,   0.479883f,     1.16061f,     -0.278878f,
  -0.814954f,   -0.152405f,   -0.0521608f,   0.797104f,    -2.08912f,
  0.385839f,    -2.22889f,    -0.106858f,    -0.239766f,   -0.951128f,
  -0.698753f,   0.0831051f,   1.1702f,       0.342834f,    -0.0352795f,
  -0.0847639f,  -0.802086f,   0.258982f,     1.14174f,     0.645885f,
  -1.19226f,    -0.592888f,   -0.343659f,    1.1912f,      1.45411f,
  -1.22927f,    0.152858f,    0.00373585f,   -1.60637f,    0.592611f,
  0.0857475f,   -0.346147f,   -0.150784f,    -0.0817408f,  -0.189918f,
  -0.804952f,   -1.33036f,    -1.03307f,     0.0248769f,   0.16607f,
  -2.896f,      -2.1293f,     0.12293f,      -0.173179f,   -0.212128f,
  -6.76221f,    0.033188f,    0.0231787f,    0.905957f,    0.0551327f,
  -0.356276f,   0.0181795f,   0.0977523f,    -0.0352873f,  -0.0396386f,
  2.3241f,      0.0632874f,   -0.11804f,     -6.32521f,    0.0224659f,
  -0.00188896f, 0.267992f,    0.272337f,     0.00936963f,  0.659969f,
  -2.25707f,    -0.0278229f,  -0.0185089f,   -1.14466f,    0.104827f,
  0.0435885f,   0.558586f,    -0.00697004f,  0.0312611f,   0.540574f,
  -0.568625f,   0.218608f,    0.378911f,     -0.0289192f,  -0.0734742f,
  -1.08782f,    -2.42069f,    -0.0127239f,   0.0493651f,   -1.15837f,
  0.261831f,    0.401824f,    -1.04545f,     0.284173f,    0.784972f,
  -0.511243f,   -0.982599f,   -0.106134f,    -0.325964f,   -1.44107f,
  -1.42434f,    -1.02402f,    -1.52034f,     0.0737116f,   0.0462242f,
  0.628722f,    -1.0405f,     -0.113718f,    2.20573f,     -4.33951f,
  -0.0192695f,  -0.0229314f,  -1.89156f,     0.645942f,    0.375708f,
  -1.97447f,    -0.267014f,   0.0989443f,    -0.450534f,   -1.01737f,
  -0.642416f,   -0.0897288f,  -2.08724f,     -0.190965f,   -0.279135f,
  -0.830178f,   0.808754f,    -0.139091f,    1.11004f,     -0.454439f,
  -0.479238f,   -1.44001f,    0.0888059f,    0.885689f,    -0.642505f,
  -0.00773651f, -0.0265721f,  -0.906346f,    1.68504f,     0.084257f,
  -0.951101f,   -8.06495f,    0.19231f,      0.16389f,     -0.193678f,
  0.729837f,    -1.98392f,    -5.98513f,     3.32638f,     -0.0658378f,
  -0.0910426f,  -0.666567f,   -0.315339f,    0.123124f,    -2.66375f,
  -0.714852f,   -0.136176f,   -0.460166f,    -0.567551f,   -1.06193f,
  -1.21389f,    -0.83865f,    0.00280695f,   -0.199519f,   -0.534704f,
  0.419311f,    -0.149008f,   -3.68707f,     0.00285113f,  -0.0718198f,
  -1.41026f,    -1.34155f,    -0.538687f,    -0.623666f,   -2.56462f,
  -0.0183333f,  -0.323532f,   -1.27141f,     -0.0212039f,  0.198633f,
  0.459554f,    -4.65103f,    -1.01293f,     -1.39512f,    -0.289026f,
  0.208724f,    -0.665226f,   1.13369f,      -1.96734f,    -1.45442f,
  -3.46172f,    0.810681f,    -0.603973f,    0.842764f,    -3.90371f,
  -0.394561f,   -3.61363f,    -2.88085f,     0.031645f,    -0.23125f,
  -2.63898f,    -1.35314f,    -0.46726f,     1.33145f,     1.20269f,
  1.38682f,     -0.331637f,   0.069021f,     0.149523f,    -1.24957f,
  -0.878857f,   -0.200368f,   0.465744f,     1.01365f,     -0.0122221f,
  -0.550586f,   -1.12581f,    -0.422132f,    -0.0744868f,  -2.4804f,
  -1.07072f,    -0.479006f,   0.101817f,     -0.118947f,   0.341576f,
  -1.0538f,     -0.812346f,   -1.13727f,     -0.00939806f, 10.1571f,
  -0.0441302f,  0.00280407f,  -21.5044f,     0.0181152f,   -0.0143246f,
  3.23462f,     -1.38624f,    -1.80416f,     4.89763f,     -2.67364f,
  2.31771e-05f, 0.000393989f, 0.352204f,     -0.193455f,   0.531455f,
  0.488757f,    -0.442555f,   -0.518528f,    0.431482f,    -2.67727f,
  -2.00626f,    -0.39729f,    -0.221494f,    -0.0188888f,  -0.0377649f,
  -1.80169f,    0.0810332f,   -0.0408335f,   -1.28675f,    -0.0353824f,
  -0.666723f,   -1.07281f,    0.252912f,     -1.24547f,    -1.7831f,
  -1.14354f,    -0.137662f,   0.00230182f,   0.736862f,    0.175872f,
  -0.187556f,   0.43963f,     -0.796524f,    0.056219f,    -0.387874f,
  0.0710224f,   -0.16548f,    -0.100993f,    0.931481f,    -3.20738f,
  -0.0197576f,  0.266148f,    -0.173909f,    -0.337795f,   -0.0682381f,
  0.176844f,    0.140286f,    1.12033f,      0.429064f,    -2.24192f,
  -1.54682f,    2.23646f,     -0.0371138f,   -0.0475339f,  -3.21766f,
  0.0412858f,   0.387811f,    6.6711f,       0.140649f,    0.0559547f,
  -0.802839f,   0.599977f,    0.64552f,      -2.08103f,    -0.503401f,
  -0.0407036f,  -0.0299199f,  0.0849445f,    -0.111657f,   -1.63462f,
  3.33762f,     0.0441394f,   0.0466889f,    -0.951806f,   0.0723954f,
  0.00348661f,  -1.36903f,    2.24625f,      -0.0348915f,  -0.0508893f,
  -0.240891f,   -0.120143f,   -0.17991f,     -2.09137f,    0.0150871f,
  0.0480333f,   1.72012f,     0.0309551f,    -0.0370507f,  -0.377075f,
  0.103916f,    -0.0169255f,  -0.0145395f,   -4.02144f,    0.83193f,
  -0.316502f,   6.3832f,      -1.70038f,     -1.97215f,    -1.94501f,
  1.45479f,     0.711725f,    -0.348496f,    -0.279056f,   -1.13396f,
  -1.51744f,    -0.853307f,   1.53131f,      -0.0032358f,  1.41808f,
  -1.32989f,    -0.245221f,   -0.161614f,    -0.500845f,   -0.449252f,
  0.0724151f,   -0.116333f,   -0.0946182f,   -2.0945f,     0.0564572f,
  0.393261f,    -1.06861f,    -0.111458f,    -0.839943f,   -0.0880348f,
  0.0365742f,   0.415339f,    -1.57494f,     -0.713697f,   1.02349f,
  -0.221371f,   -0.0446281f,  1.89223f,      -0.0811754f,  -0.402773f,
  -0.930987f,   0.0243194f,   0.0678332f,    -0.0233014f,  0.165372f,
  -0.44083f,    -1.2404f,     0.35675f,      -0.040916f,   -0.0512548f,
  -2.9071f,     0.861174f,    -0.778133f,    2.14436f,     -0.688427f,
  -0.480371f,   -1.69032f,    0.706687f,     -0.281982f,   -2.30451f,
  1.61541f,     -0.0213638f,  -0.740509f,    -0.266677f,   0.0268434f,
  -0.0116908f,  -3.17595f,    0.0114825f,    0.0196997f,   -0.144005f,
  0.0550181f,   -0.851459f,   -0.000285073f, -0.538441f,   -0.0254868f,
  -0.0104454f,  -0.0661998f,  -0.196469f,    -0.346372f,   -5.52892f,
  -0.643683f,   -0.622224f,   -0.31463f,     -0.555956f,   -0.520132f,
  -0.843166f,   -2.59479f,    -0.750195f,    0.00635995f,  -0.338615f,
  -0.216676f,   -0.391544f,   -1.62185f,     -0.718471f,   -0.475406f,
  -0.782041f,   -0.608824f,   -1.09633f,     -1.27308f,    -0.560719f,
  -0.207539f,   -0.0196445f,  -1.05519f,     -0.575249f,   -1.0642f,
  1.01615f,     -0.873633f,   -0.417953f,    -0.428051f,   0.350259f,
  -2.53833f,    -2.72203f,    0.672846f,     -0.503094f,   -1.1374f,
  0.214291f,    0.013305f,    0.0112064f,    1.10532f,     0.030455f,
  0.0239614f,   0.628072f,    0.0539135f,    -0.472441f,   -0.688439f,
  -0.32044f,    -0.0234867f,  -0.0158436f,   -0.949314f,   -0.0453161f,
  -1.18306f,    0.626845f,    -0.426925f,    -0.688371f,   0.415062f,
  0.0640985f,   -0.638387f,   -2.01399f,     -0.209744f,   -0.762892f,
  -0.0753296f,  -0.879315f,   -0.520433f,    -0.111375f,   0.389742f,
  -0.398862f,   -0.643227f,   -0.246396f,    0.0317051f,   1.06973f,
  0.413617f,    0.180506f,    -0.0507897f,   -0.00650435f, 0.620892f,
  0.046312f,    0.475032f,    0.906993f,     -0.0388061f,  -0.256271f,
  -1.03323f,    0.0125266f,   -0.31116f,     -0.377611f,   -0.0386407f,
  -0.0232745f,  -0.353644f,   -2.27289f,     0.0571779f,   -0.00865006f,
  1.65101f,     0.0175711f,   0.0184585f,    0.558458f,    0.2213f,
  -0.285089f,   0.433445f,    -0.427177f,    -0.0103682f,  -0.0101273f,
  0.214085f,    -0.0459885f,  0.00761981f,   0.836381f,    0.0175293f,
  0.02508f,     -1.51778f,    0.0143956f,    -0.162589f,   0.595418f,
  0.21445f,     -0.0335848f,  -0.0136684f,   -0.16686f,    -0.14612f,
  0.0816238f,   0.499636f,    0.12458f,      -2.41673f,    -0.261721f,
  -0.676805f,   -1.88366f,    0.730462f,     0.69196f,     -0.0288489f,
  -2.38272f,    0.329876f,    0.014517f,     -0.115145f,   -3.48151f,
  -0.00209072f, -0.0732377f,  0.820443f,     -0.0118701f,  0.112145f,
  0.272315f,    0.137531f,    -0.0200997f,   -0.0397883f,  -2.19458f,
  0.183554f,    -0.639716f,   0.481605f,     -0.621639f,   -0.0980299f,
  -0.710534f,   -0.143105f,   -6.77626f,     -1.65139f,    -2.37718f,
  -0.533127f,   -1.12574f,    3.34182f,      -0.0758663f,  0.0334238f,
  -9.48647f,    0.0674974f,   0.0507665f,    0.523007f,    -0.0668f,
  0.5736f,      -0.589761f,   -1.1692f,      -0.0236497f,  -0.00828928f,
  -0.265823f,   1.15284f,     0.307927f,     -0.695308f,   0.13725f,
  -0.20394f,    -0.363965f,   -0.331159f,    -1.50927f,    -1.20051f,
  -0.0205825f,  -0.0381859f,  -0.0579876f,   -1.6913f,     -1.94626f,
  3.4214f,      3.3922f,      -2.13798f,     -0.679848f,   -0.890735f,
  0.235017f,    -0.253202f,   -1.0571f,      1.40354f,     0.00719052f,
  -1.54365f,    -0.7289f,     -1.05492f,     0.0238169f,   -0.00543592f,
  -0.0510353f,  -0.175386f,   -0.724207f,    -0.788936f,   0.039976f,
  1.36966f,     0.869475f,    -0.0302774f,   -0.0537556f
};

static const NN_CONFIG av1_max_part_pred_nn_config = {
  NUM_FEATURES,
  NUM_LOGITS,
  NUM_HIDDEN_LAYERS,
  {
      NUM_LAYER_0_UNITS,
  },
  {
      av1_max_part_pred_layer_0_kernel,
      av1_max_part_pred_logits_kernel,
  },
  {
      av1_max_part_pred_layer_0_bias,
      av1_max_part_pred_logits_bias,
  },
};

static const float automax_partition_weights_layer0[624] = {
1.1341519f,0.17000695f,-0.32074538f,-3.1165104f,0.06920194f,-0.06988577f,0.27170888f,-0.2353814f,-0.77951354f,0.55243653f,-0.6640895f,-0.16415487f,-0.027988583f,-0.6935672f,1.0870352f,0.28451577f,-0.4944827f,0.25065213f,-0.16106492f,-0.729655f,-0.15359238f,-1.5613928f,-1.3331459f,0.96292645f,-0.045426946f,-0.075514056f,0.10732559f,0.06256198f,0.6197751f,1.289753f,-0.016352946f,-0.30140397f,-1.3177578f,-0.05200342f,-0.39729846f,0.036231935f,0.2815745f,-0.03729277f,-0.7455084f,0.68332106f,0.22282739f,-0.3045477f,-0.19435924f,0.025271293f,0.117281534f,1.0127517f,0.08528776f,0.1530661f,-1.0851475f,1.6122495f,-0.08546581f,-0.045346923f,-0.21783255f,-0.09341645f,0.026261054f,-0.8384081f,-0.42476684f,-0.14750937f,-0.5921601f,-0.20740119f,-0.06092834f,-0.28429806f,-0.34571868f,-9.1019974e-05f,-0.2921264f,0.4008828f,0.17577572f,0.7042929f,-0.20421897f,-0.5553594f,-0.2609299f,-0.76367134f,0.597335f,1.2188082f,-0.71739954f,0.45944986f,-0.30177712f,-1.5058091f,-0.77607834f,0.05964452f,0.57494575f,-2.0066535f,-0.41941944f,-0.073792934f,-0.9831624f,0.64971244f,0.7152314f,-1.3842018f,-0.33154052f,-0.14918962f,-0.23634262f,-0.52467227f,-0.09214956f,0.023105456f,0.08215459f,0.09541824f,-0.098430976f,-0.18298206f,-0.1717145f,-0.030193496f,-0.70676845f,-0.3517255f,-0.17879291f,-0.011067765f,-1.3612233f,0.09615998f,-0.3749561f,-4.4269457f,0.2126011f,0.07952838f,-0.60570306f,0.33317375f,-0.569308f,-1.6740742f,1.0357728f,-0.05041265f,-0.044660598f,-1.2696639f,0.20712548f,1.181711f,-1.7303344f,-0.33981642f,0.7364871f,-1.6348181f,0.22194633f,1.715557f,-1.8948151f,0.16777597f,-0.0057864883f,-1.3066671f,-2.8238611f,0.024453608f,0.4237706f,6.5298443f,0.13606799f,0.060879137f,-1.3048847f,0.6147983f,0.6623933f,-2.0304832f,-0.10003886f,-0.04026237f,-0.028698996f,-0.38599238f,-0.06791827f,-0.027878975f,-0.27584055f,0.007638453f,-0.14470665f,-0.19089518f,-0.28637108f,-0.16127546f,0.08087429f,-0.107691325f,-0.031476937f,-0.11388884f,-0.8057704f,-0.07280208f,-1.5035802f,2.6754587f,0.04405469f,0.02910595f,-0.6220912f,0.05803608f,0.008000192f,-1.0860562f,1.8610934f,-0.022058936f,-0.05458986f,2.4474428f,-0.0623677f,0.003909547f,-10.920969f,0.20071387f,0.1291775f,3.323752f,-0.8163206f,-1.0690869f,3.5945485f,-2.2862172f,-0.009057288f,-0.011124868f,-0.64378667f,-0.17109616f,0.015635533f,0.239486f,-0.45402622f,-0.13139044f,0.072035156f,-0.022617629f,0.0232915f,-0.21217233f,-0.074166164f,0.0010209967f,-0.241542f,-0.052367233f,1.0074415f,1.5009897f,-0.28617638f,0.08742201f,0.17473689f,-0.74370605f,-0.5049228f,0.12517801f,0.9739486f,1.1778693f,0.0019558559f,-0.5756052f,-1.3006636f,0.3065548f,-0.08148562f,1.9481525f,-0.53207153f,-0.5536939f,-0.59219146f,0.37548912f,0.10867409f,-0.03815756f,-0.20467517f,-0.026129616f,-0.17290644f,0.16584304f,-0.98940575f,-0.019625241f,-0.19412655f,-0.061668225f,-0.14908527f,-0.30977428f,-0.77871954f,0.14000231f,0.34785348f,0.22574216f,-0.025643134f,-0.05067804f,-0.009682695f,-0.00841362f,0.005650017f,-0.47003278f,-0.14617944f,-0.35553095f,-0.11988432f,-0.029850323f,-0.1141485f,-0.35415596f,-0.163193f,-0.005788756f,-0.050041042f,0.019041643f,0.1096488f,0.042008847f,-2.4884005f,-0.05103122f,-0.06145501f,1.1310532f,-0.011499902f,0.50924426f,-0.031888288f,-0.28986079f,-0.027499052f,-0.09729029f,-1.7165098f,0.21725169f,-0.058403187f,0.90450865f,-0.15979159f,-0.15466587f,-0.23621607f,0.25479737f,-1.0807208f,0.39061528f,-0.71579033f,-0.1793857f,-0.17464924f,0.5796942f,0.16394904f,0.11832485f,0.3935817f,-0.6311414f,-0.38396317f,-0.55673456f,-0.44840184f,1.1093746f,0.5606018f,-0.8957291f,-0.087920055f,-0.4912343f,0.013130138f,0.27700934f,0.123049535f,3.2278352f,0.12772857f,0.118452415f,-0.62726015f,0.012330935f,-1.5587268f,-0.4099242f,1.1085316f,-0.0701533f,-0.04925882f,-0.89098567f,-0.0643887f,-0.18893811f,-0.49730954f,-0.17363234f,0.033960946f,-0.73302287f,0.16455802f,-0.1769882f,-1.1246293f,0.2712693f,-0.07354224f,-0.04843045f,0.19257918f,-0.97064f,0.14099362f,-1.5241107f,-0.053420488f,-0.09570431f,0.13287553f,-0.04725031f,-0.0761672f,0.06147905f,0.23243849f,-0.016850764f,-0.056130208f,-0.7454788f,-0.4050689f,0.39839837f,1.8753868f,-0.535916f,-0.23956774f,-0.49624363f,-2.0493605f,0.25287595f,0.19040886f,-0.5114553f,-0.08242405f,-0.053663835f,-0.55815136f,0.53948176f,-0.20164211f,-1.2149807f,-0.24903525f,0.20594938f,-0.31322485f,-0.9440873f,-1.3892308f,-0.15085182f,-0.2228441f,-0.030838713f,-0.10549282f,-0.6653089f,0.33965f,-0.0023369328f,-0.74702805f,-0.20594734f,0.1701851f,-0.19741468f,-0.5054999f,-0.5607764f,0.21733f,0.042199593f,-0.012098919f,-0.056299552f,-2.1678395f,-0.8598846f,-0.7505137f,-0.18479766f,0.09513399f,0.049809497f,0.26126355f,-0.64380944f,-0.25174418f,1.5967791f,-1.8459904f,-0.018119447f,-0.014577354f,-0.11036083f,-0.00510916f,-0.020482082f,-0.5241345f,-0.08571809f,-0.4033626f,-0.06877462f,-0.06656092f,-0.023598887f,-0.13147783f,-0.16368236f,-0.0044862265f,-0.0364222f,0.39366123f,-0.5211376f,-0.052633625f,-0.9323058f,-0.099730976f,-0.025614658f,-0.45956108f,0.26563329f,0.2973219f,0.14740625f,0.27492845f,-0.06883793f,-0.07605086f,-0.41377464f,0.8569256f,0.41191f,1.0006281f,0.07739443f,-0.17006594f,-1.1750442f,-0.13704833f,-1.2859013f,-0.43191764f,-0.15818062f,-0.026826791f,-0.058352344f,0.19842644f,-0.13954884f,-0.071458764f,-0.48223054f,0.101882204f,0.08936996f,1.1502795f,0.062465955f,-1.3580666f,-0.69667137f,1.9380575f,-0.029511334f,-0.03412277f,-3.9305887f,0.1216485f,0.014870705f,3.1822047f,0.041637804f,0.04876507f,0.72695476f,0.4118972f,-0.4592471f,0.7526679f,-0.5057507f,-0.022752937f,-0.02388088f,-0.7563332f,0.10207221f,-0.084635645f,0.31122628f,-0.28798267f,0.05129689f,0.050075386f,-0.18425405f,-0.042665545f,0.49760577f,0.5891402f,-1.9684882f,-0.041426532f,-2.7778409f,0.012277503f,0.28635553f,5.340932f,0.110843085f,0.028668689f,-1.136244f,0.38734183f,0.7065747f,-1.3648422f,0.01930861f,-0.024610428f,-0.023197044f,0.031639263f,-0.10727003f,-0.04626212f,1.8613389f,0.04199789f,0.050027315f,-2.950662f,0.0125363115f,-0.38761288f,1.2426405f,-0.5162478f,-0.1056112f,-0.018224632f,-0.18816149f,-0.070476845f,-0.24526398f,-0.2847401f,-0.029851131f,-0.09149778f,-0.24040772f,-0.34108314f,-0.11815761f,0.1295627f,-0.08266999f,-0.0019883746f,-0.34161285f,-0.8061076f,2.3030398f,-0.0066466555f,2.2536027f,-2.0968714f,-0.60561246f,-0.6369265f,-0.72179174f,-0.4136597f,-0.068901345f,-0.017051548f,-0.2416061f,-2.4134014f,-2.0409465f,-0.01908073f,0.08431149f,5.3634214f,0.13991076f,0.14601979f,-0.68504405f,-0.02225271f,0.18160097f,-0.6500686f,0.6568077f,-0.0047773365f,-0.010243169f,-1.5242174f,0.0073388102f,-0.2306729f,0.25910804f,0.26266593f,0.35159257f,-1.3800635f,0.44080237f,0.91433865f,-1.5133343f,-0.18244943f,-0.1179731f,-0.32891577f,-0.37418455f,0.074314855f,0.54052275f,1.7915728f,-0.111801706f,-0.16102138f,0.13584201f,-0.6322766f,-0.36480975f,-0.5418663f,-1.7748433f,-0.097095445f,-0.8569771f,-0.6427113f,0.24997035f,-0.16782863f,0.33715487f,0.07519965f,-0.15061487f,-0.9733385f,-1.0860382f,-0.06826104f,-0.9626652f,-0.042740285f,-0.05949144f,-0.028889112f,-0.41072428f,-0.28860015f,0.3891371f,0.6133282f,-0.5935056f,0.18972155f,-0.2888364f,-1.0363991f,0.50040823f,-0.4778877f,0.41535485f,-0.07071359f,-1.0834682f,-0.025475405f,0.05615583f,-0.1796468f,-0.50679314f,-0.23998518f,0.01114692f,-0.60862076f,-0.25883457f,-0.081055924f,0.06026925f,-0.21527073f,-0.21955374f,-0.06765745f,-0.47442132f,0.18894629f,-0.15318272f,-1.7267605f,0.070986055f,-0.14766593f,-0.03252914f,-0.9435991f,-0.54081756f,-0.25765237f,-0.2109283f,-0.03047456f,-0.028873842f,-0.8021411f,0.080087565f,-0.43503708f,1.4316422f,0.079037f,-0.47248617f,0.40816778f,-0.16549559f,1.000598f,-0.2923834f,0.30962095f,-0.37968025f,-0.18964091f,0.74605995f,-0.046021596f,0.019132905f,-7.775354f,0.04003868f,0.022942564f,0.87198955f,-0.035120208f,0.36671928f,1.2671674f,-0.59514344f,-0.018325621f,-0.0076935166f };
static const float automax_partition_weights_layer1[192] = {
0.3033567f,-0.71779996f,-2.6260064f,0.07390241f,0.10863557f,-0.8513719f,-0.23187393f,0.09646891f,0.3807404f,-0.2923417f,-1.3821529f,-7.7181685e-05f,-0.19677736f,0.028867088f,-0.07398946f,-0.15797485f,0.61861515f,0.04003378f,0.12714419f,0.030684149f,0.030427443f,-0.09656817f,0.18828765f,0.068439126f,0.11160102f,0.39030778f,0.29703754f,0.29882276f,-0.11747777f,-0.05733792f,0.12860359f,-0.5566273f,0.005334742f,-0.8749704f,-0.40517983f,-0.23998392f,-0.8306787f,0.014772423f,-2.838168f,-0.033843726f,-0.20104533f,-0.40934372f,0.20472899f,-0.3224529f,-0.15449354f,0.18808989f,-0.111686856f,0.07462297f,0.03480382f,0.051652268f,-0.7284713f,0.10591518f,0.009155709f,0.13720156f,-0.12619983f,0.046160307f,0.22704454f,-0.03427877f,-0.17830855f,0.017415492f,0.04049356f,-0.00028137612f,0.028081654f,-0.1683042f,2.432813f,0.1660751f,0.11873831f,0.20914574f,-0.029218879f,-0.14965713f,0.012386431f,0.08150619f,0.18913758f,0.11889532f,-0.12313129f,0.10737411f,-0.06683117f,-0.053973425f,0.061193917f,-0.01309082f,0.03445851f,-0.21984595f,-0.22932908f,-0.013598638f,-0.40821746f,-0.09717153f,-0.1552535f,-0.0003973147f,0.02716197f,0.124466196f,0.012622679f,-0.18234624f,0.056511678f,-0.023180068f,-0.06582169f,-0.04078392f,-0.13265255f,0.04777897f,0.0057586026f,0.10088064f,-0.097503975f,-0.016820235f,-0.1695f,0.03725094f,0.010569439f,-0.021285694f,-0.069270715f,0.035919666f,0.1376964f,-0.029838225f,0.0096144695f,-0.14131647f,1.390128f,0.3027758f,0.152567f,0.03766749f,-0.027127175f,-0.06499623f,-0.111544825f,-0.0076566897f,0.12489862f,0.0988088f,-0.30819187f,-0.0501482f,-0.0067457315f,-0.077776104f,0.034996245f,0.00010450525f,-0.0056874296f,0.053071138f,0.17960681f,0.019048983f,-0.022293886f,0.055902313f,-0.018250376f,0.035720643f,-0.17517531f,0.029502152f,-0.06947686f,0.016390307f,0.17111953f,-0.00017830191f,0.0045625935f,-0.31999144f,-0.056204032f,-0.0324081f,0.55481625f,0.048144802f,0.0083748745f,0.1211534f,-0.09808453f,0.09689874f,0.15232635f,0.18298873f,-0.05348615f,0.025492478f,0.16984637f,-0.054815475f,-0.061277762f,-0.03404257f,0.26550215f,0.4606774f,-0.029435012f,-0.33251703f,-0.050744817f,-0.01971533f,-0.10643558f,0.12704287f,-0.08030272f,0.12968352f,-0.39766735f,-0.19275384f,0.0039535025f,0.025361696f,0.12828329f,-0.032209486f,-0.15848416f,0.11746118f,0.4628592f,0.006996237f,0.16184416f,-0.006341691f,0.19065757f,0.05805416f,0.10293601f,-0.2913856f,-0.1633824f,0.3414115f,-0.3283411f,-0.13125476f,0.023352755f,-0.36148623f };
static const float automax_partition_bias_layer0[4] = {
-3.3984191f,0.021525817f,0.6814376f,-1.1569848f };
static const float automax_partition_bias_layer1[4] = {
-3.3984191f,0.021525817f,0.6814376f,-1.1569848f };
static const NN_CONFIG automax_partition = {
    // 93.64% test accuracy
    13,  // num_inputs
    4,  // num_outputs
    1,  // num_hidden_layers
    {
        48,
    },  // num_hidden_nodes
    {
        automax_partition_weights_layer0,
        automax_partition_weights_layer1,
    },  // weights
    {
        automax_partition_bias_layer0,
        automax_partition_bias_layer1,
    }  // bias
};

#undef FEATURES
#undef HIDDEN_NODES

#ifdef __cplusplus
}  // extern "C"
#endif

#endif  // AOM_AV1_ENCODER_PARTITION_MODEL_WEIGHTS_H_
